28 100
</s> 0.004003 0.004419 -0.003830 -0.003278 0.001367 0.003021 0.000941 0.000211 -0.003604 0.002218 -0.004356 0.001250 -0.000751 -0.000957 -0.003316 -0.001882 0.002579 0.003025 0.002969 0.001597 0.001545 -0.003803 -0.004096 0.004970 0.003801 0.003090 -0.000604 0.004016 -0.000495 0.000735 -0.000149 -0.002983 0.001312 -0.001337 -0.003825 0.004754 0.004379 -0.001095 -0.000226 0.000509 -0.003638 -0.004007 0.004555 0.000063 -0.002582 -0.003042 -0.003076 0.001697 0.000201 0.001331 -0.004214 -0.003808 -0.000130 0.001144 0.002550 -0.003170 0.004080 0.000927 0.001120 -0.000608 0.002986 -0.002288 -0.002097 0.002158 -0.000753 0.001031 0.001805 -0.004089 -0.001983 0.002914 0.004232 0.003932 -0.003047 -0.002108 -0.000909 0.002001 -0.003788 0.002998 0.002788 -0.001599 -0.001552 -0.002238 0.004229 0.003912 -0.001180 0.004215 0.004820 0.001815 0.004983 -0.003111 -0.001532 -0.002107 -0.002907 0.002815 0.001579 0.000425 -0.002194 0.001524 0.003059 0.000194 
{ 0.002004 -0.005110 0.004508 0.000272 -0.001909 -0.002058 -0.000571 -0.003147 -0.004505 -0.002560 0.004693 -0.001786 -0.002952 0.002259 -0.001746 0.005099 -0.001310 -0.004442 0.002821 0.000135 -0.003687 0.001028 0.001690 -0.000595 0.002011 -0.004014 0.001164 0.001808 -0.003030 0.000243 0.000068 -0.002306 -0.003037 -0.004696 -0.000051 0.000236 -0.000090 -0.004071 -0.005051 -0.004986 -0.004386 -0.000451 0.001377 0.001169 -0.003195 0.005042 -0.001939 -0.001334 -0.001308 0.004601 -0.003879 0.000998 -0.001396 0.003437 -0.000033 0.004092 -0.002862 -0.002743 -0.003997 -0.003789 -0.003149 -0.003149 0.002330 -0.001846 0.002699 0.004037 0.001680 0.002899 0.002896 0.002611 -0.003665 -0.003068 -0.003683 -0.000228 0.004293 -0.002683 -0.003286 -0.004145 0.002939 -0.004340 -0.000462 0.002355 -0.004951 -0.004217 0.001915 0.003822 0.004529 0.001998 0.003214 -0.003227 -0.003608 0.004370 -0.002838 0.001693 0.000581 0.002034 -0.001449 0.000347 -0.001878 -0.001135 
} -0.004566 -0.003321 0.003543 0.000924 -0.002343 -0.001557 0.002508 -0.003580 -0.002398 0.004901 0.004420 -0.003880 0.000717 -0.002326 0.000155 0.003242 0.005049 0.002122 0.004185 0.003265 -0.000368 0.004574 0.002713 0.004618 -0.001593 0.004719 0.004417 -0.001383 -0.004381 0.004830 0.000948 -0.001982 -0.000820 -0.000605 -0.003943 -0.001373 -0.000426 -0.004909 -0.003539 -0.001389 -0.000892 0.001809 0.000782 -0.000556 0.003010 0.001466 0.000580 0.003525 -0.001064 -0.001551 -0.000532 -0.002749 -0.003053 0.000260 0.004267 -0.001526 0.000051 -0.004178 0.003766 -0.001584 0.002962 -0.002403 -0.000940 0.000162 0.003561 0.000064 0.004589 -0.000796 0.002363 -0.000003 -0.003887 0.004439 0.001083 -0.003059 0.003038 -0.004115 -0.004485 0.003323 -0.003614 -0.002679 0.003641 0.003380 0.000573 0.004666 0.005121 0.004236 0.001904 -0.004420 0.002358 -0.004839 -0.001284 0.001667 0.000908 -0.001540 0.003027 -0.004438 -0.001501 -0.001214 -0.001811 0.002968 
to -0.006046 0.002487 0.001593 0.002244 0.004295 0.000907 0.000595 -0.004947 -0.001825 0.004688 -0.000618 0.005191 -0.002539 -0.004275 -0.003198 0.006547 0.004588 -0.002987 0.005449 -0.003018 -0.005755 0.002853 0.000785 -0.003570 0.000924 -0.003482 0.002862 0.004220 0.004727 -0.004944 -0.001627 0.000579 -0.001992 0.004965 0.001819 0.005011 -0.003429 0.002230 0.004872 -0.002981 0.002728 0.001611 -0.004713 0.004390 0.005309 -0.002938 0.000197 -0.001919 0.003178 -0.004396 0.002944 -0.000985 -0.001131 -0.000961 -0.005329 -0.004008 -0.000702 0.005139 -0.002466 -0.005436 0.000355 0.000297 0.003024 0.000262 0.002884 0.004067 0.000145 -0.000989 0.002974 0.002810 0.003906 0.005048 -0.001857 -0.002595 -0.001988 -0.002106 0.000171 -0.003813 -0.003763 -0.005423 0.002509 0.005431 -0.003538 -0.004055 0.005011 0.003178 -0.001907 -0.000949 -0.000363 0.000143 -0.001728 0.001885 -0.003469 0.003661 0.004324 0.004704 -0.002397 0.000853 -0.000479 -0.003164 
the -0.005771 -0.001310 -0.001589 0.002452 0.003000 0.002160 -0.003117 0.003155 -0.002223 0.004515 0.002468 0.005368 0.001513 0.000439 -0.002666 0.006270 -0.001393 0.004046 0.005476 0.005750 -0.001475 0.003572 0.005720 -0.003015 0.005818 -0.005659 0.000794 -0.000262 0.004609 -0.004593 -0.001129 -0.001219 -0.000318 0.005493 -0.002016 -0.004638 -0.001851 0.004439 0.001285 0.001973 -0.003972 -0.001018 0.000478 -0.002320 0.003869 -0.004945 0.003664 -0.002712 0.003790 0.002724 -0.002467 0.003466 0.000507 0.005709 -0.004175 -0.002009 0.003126 0.004628 0.002514 -0.001530 0.000603 -0.001040 0.001849 0.002816 -0.004244 -0.000382 0.005549 0.000050 0.006791 0.006057 0.001075 -0.003681 0.004956 0.002186 -0.004624 0.004107 -0.005755 -0.002143 0.003308 0.003055 -0.000457 0.001943 -0.004296 -0.004230 0.003791 0.005596 0.004744 0.002555 0.002111 0.002099 0.000112 0.003096 -0.003110 0.000845 0.001294 0.001033 0.001837 0.001271 -0.005179 -0.001724 
1 0.001672 0.003527 -0.003927 0.000847 0.004127 0.004180 -0.004554 0.002919 -0.003192 -0.001026 0.001689 0.002848 -0.004628 -0.002910 0.001189 0.001037 0.005184 0.002767 -0.002689 0.000645 0.000624 -0.002293 0.003913 -0.003383 0.005749 0.000475 -0.004623 0.000572 -0.000428 0.000832 0.003427 0.000309 -0.000591 0.000890 -0.003077 -0.000245 0.003341 0.004037 0.002329 -0.005624 0.000044 -0.002772 0.003683 0.004551 0.003727 0.001617 0.001429 -0.001914 -0.002148 -0.002139 -0.004331 0.000364 0.000864 0.001870 0.001835 -0.004478 0.003495 -0.001301 -0.004475 0.003974 -0.002925 -0.000956 -0.004312 0.005209 -0.002388 -0.004732 0.004762 0.001601 0.004559 0.002044 0.004203 0.000753 0.004222 0.004537 0.001615 -0.000279 0.000661 0.004300 -0.003665 -0.000595 0.001464 0.002496 0.000068 0.004001 0.002358 0.004060 -0.003152 -0.002209 0.002468 0.005088 0.001740 0.001476 -0.005078 -0.004626 0.004762 0.003149 -0.003355 -0.001459 -0.004564 -0.003776 
of 0.003623 -0.002905 0.001125 -0.001510 -0.001715 -0.000100 -0.004776 -0.002469 -0.000745 0.005305 -0.001204 0.004287 -0.005429 0.003842 0.000232 0.001164 0.003407 0.004033 -0.002818 0.003822 0.000755 -0.000947 0.003981 -0.000281 0.005051 -0.000307 -0.001407 0.003546 -0.003085 -0.000825 0.004417 0.005043 -0.004680 0.002190 0.003701 0.000828 0.002402 0.003042 0.005116 -0.001669 -0.001121 0.003240 -0.005038 0.001255 0.000745 0.004455 -0.003394 -0.000228 0.004891 0.001060 0.002207 0.001268 0.001406 0.001638 -0.000356 0.002841 0.004122 0.003243 -0.001972 -0.003245 -0.003236 -0.001293 -0.002454 -0.003959 -0.002306 0.004181 0.003481 -0.004974 -0.000748 0.004957 0.000082 0.004254 -0.000703 -0.000253 -0.002784 0.001997 -0.004726 0.002976 -0.003364 0.002426 -0.002818 -0.001646 0.003244 0.003019 0.003288 0.002459 0.003191 -0.000744 0.004504 0.003894 0.003493 0.005397 -0.002771 -0.003813 -0.002937 0.001189 0.000340 0.004266 -0.003960 0.002835 
a 0.003563 0.003454 0.000123 0.001113 -0.000463 0.005034 -0.004567 -0.004814 0.001667 -0.000241 0.004971 -0.000969 -0.000489 0.001914 0.000916 -0.002454 0.003981 0.000364 0.001472 -0.000847 0.004348 0.002726 0.004808 0.004102 -0.000504 0.001637 0.001485 -0.001971 0.004357 0.002191 -0.003024 0.004341 0.000095 0.001563 -0.003754 0.002274 0.000270 -0.002134 -0.000270 0.001657 -0.001293 0.004015 -0.002837 -0.002103 0.004055 0.004845 0.003845 0.004583 -0.004592 -0.003471 -0.004886 0.001003 -0.004077 -0.000038 0.000638 -0.002471 0.001281 -0.004232 0.001693 -0.001864 -0.001879 -0.001170 0.002156 -0.001589 -0.002506 -0.002973 -0.001362 -0.004203 0.002627 -0.000737 -0.000862 0.002361 -0.003535 -0.003314 -0.004762 0.000010 -0.002261 -0.004609 0.001484 -0.004948 -0.002007 0.001953 0.004566 -0.003289 -0.001278 0.005487 0.003157 0.004215 0.004263 -0.002497 -0.002134 0.002712 0.002734 0.003541 0.003550 -0.003955 -0.004809 0.000854 -0.004836 0.002734 
#wll2021 0.004242 -0.002001 0.003792 -0.004972 0.004184 -0.002384 -0.000734 -0.004842 0.003042 0.004079 -0.004078 -0.000914 0.000972 0.004419 0.000166 -0.004905 0.000631 -0.001833 0.000904 0.003966 -0.002825 -0.002645 -0.000458 -0.001022 -0.001741 -0.003487 -0.000013 -0.004085 0.004041 0.002673 -0.001355 0.003057 -0.002823 -0.004633 0.004422 0.001185 0.002822 -0.003375 -0.001276 0.003580 -0.001367 0.000978 -0.004542 -0.003975 0.004766 -0.004541 0.001030 -0.003201 0.003878 -0.000402 0.004346 -0.003315 0.001125 -0.004574 -0.003188 -0.001036 0.004163 -0.002525 0.002336 -0.000584 0.003148 0.002776 -0.002679 -0.003677 0.000736 0.000860 0.000677 0.000467 0.002084 0.003758 0.003807 -0.004872 0.004849 -0.003997 0.000619 -0.003912 -0.000815 0.004624 -0.002481 0.001629 -0.002250 -0.000847 0.003413 0.002530 -0.004300 0.001622 -0.000292 0.002074 0.000691 -0.003438 0.000309 -0.003958 0.002879 0.001003 0.001623 0.002715 0.004921 0.004478 0.002556 0.002874 
display: 0.001802 -0.000968 0.004438 -0.000308 0.001874 -0.000635 0.001293 -0.000662 0.004092 0.002092 -0.000143 -0.000182 0.001978 -0.003295 -0.001967 0.001777 0.001159 -0.003789 -0.001715 -0.001444 -0.002313 0.003835 0.004215 -0.004518 0.003527 -0.002814 0.001528 0.002311 -0.000134 -0.003894 0.000168 -0.001478 0.002347 0.002655 0.000687 -0.002325 -0.000821 0.000594 -0.002071 -0.004692 -0.000111 -0.002670 -0.002549 0.000716 -0.002477 0.002648 -0.001457 0.003489 -0.003195 -0.001736 0.002140 -0.002297 -0.004351 -0.000733 0.002970 -0.001612 0.004367 0.001865 -0.002945 0.004808 -0.004905 -0.003942 0.003141 -0.002786 0.003418 0.003984 0.003091 -0.001538 -0.002289 0.000087 0.000046 -0.004835 -0.003583 0.000931 0.000666 0.004985 0.002963 -0.003343 0.004095 -0.001210 0.003269 -0.000861 0.001956 0.000304 0.004356 0.002860 -0.001939 0.004617 -0.003962 0.004598 -0.001706 0.000921 0.001054 0.004009 0.002109 -0.000858 -0.004782 0.003641 0.000088 0.002379 
position: -0.004611 -0.002788 -0.002265 -0.002703 0.003247 0.002694 -0.000220 0.001961 -0.000731 -0.000776 -0.003564 -0.002603 -0.000238 -0.002452 -0.002765 -0.003664 0.003456 0.004531 -0.001288 0.004258 -0.002273 -0.004698 -0.004406 -0.000838 -0.001595 -0.000152 -0.003390 0.003880 -0.002057 0.001141 0.003758 -0.000079 -0.005077 0.003362 0.000665 0.003460 0.000434 0.002412 0.004512 0.002250 -0.003672 -0.000978 0.003084 -0.001446 -0.001876 0.004502 -0.001250 0.004490 0.003029 0.003695 0.004412 -0.004037 0.000969 0.004463 -0.002839 0.001229 -0.004704 0.004601 -0.003604 0.001420 0.000849 -0.002986 0.002417 0.000025 -0.004860 -0.002708 0.000321 0.001903 -0.000371 0.000825 0.004683 -0.003327 0.004305 -0.002963 -0.004141 0.003422 -0.004160 -0.000611 -0.005404 -0.003891 0.003081 0.002111 -0.004286 0.001626 0.005161 0.001540 -0.004195 -0.003455 0.003482 -0.003207 0.002008 0.003729 0.004215 0.001194 -0.003018 0.003943 -0.004547 -0.001081 0.003787 0.003983 
0, -0.002382 -0.003721 0.000444 0.002932 0.002355 0.003543 0.004385 0.000943 -0.004774 0.002496 -0.002523 0.001347 0.003889 -0.002330 0.003625 -0.000076 -0.001501 -0.003904 -0.000764 0.004956 0.001713 -0.002695 0.003216 -0.002775 -0.001314 0.003329 -0.003029 0.000011 -0.002925 -0.001302 0.004408 -0.000904 -0.002963 0.000444 0.001933 0.002761 0.001227 -0.001901 -0.001548 0.001788 0.004802 0.003692 -0.004628 -0.000543 -0.004583 0.001757 -0.003402 0.001550 0.003231 -0.000676 -0.001463 -0.003652 0.000897 -0.004077 0.000096 0.004632 0.003574 0.003587 0.002679 -0.000316 -0.001084 -0.003153 0.000194 -0.002715 -0.002919 0.002734 -0.000952 -0.004285 0.000724 0.000779 -0.001855 -0.004242 -0.004998 0.003014 -0.001107 0.000692 -0.002429 0.003969 -0.004803 -0.003699 -0.001413 0.000676 0.003464 0.000864 0.000707 0.002666 0.002600 -0.004836 -0.000914 0.001971 0.004012 0.002482 0.001382 0.003122 0.001606 -0.001402 -0.002250 0.003149 0.001787 0.001795 
.wll2021 0.000845 0.001571 0.003463 0.002844 -0.004177 0.000452 -0.001955 -0.004938 0.000338 0.004315 -0.000572 0.004171 0.004571 0.000153 0.004029 -0.001486 0.001151 -0.002467 0.000735 -0.001175 -0.004781 -0.001515 0.000978 -0.001594 0.004464 -0.002472 -0.001355 0.003031 -0.000954 0.001698 0.000153 0.001000 0.001587 0.000528 0.004393 0.003083 -0.002714 -0.003976 0.002799 0.002526 0.003769 0.002757 -0.000737 -0.004809 0.001165 -0.002242 0.000188 -0.000737 0.002196 0.000521 0.004469 -0.004389 0.001983 0.003111 0.003552 -0.002547 -0.001802 0.000047 0.001310 0.000607 0.000956 -0.001647 0.004140 0.003328 0.002950 -0.002423 0.000967 -0.003574 -0.000640 -0.000267 0.003203 0.003153 -0.002215 -0.000638 0.004737 -0.000689 -0.001593 0.003481 0.001991 0.003173 0.003896 0.001642 0.003859 -0.004479 -0.000613 -0.004122 0.001774 -0.000371 0.002524 0.000691 -0.000407 0.001289 0.003515 0.003146 0.003758 -0.001208 0.004959 0.002759 0.003160 0.002876 
0 0.001670 0.001466 -0.000711 -0.003294 0.002599 0.004224 -0.004163 -0.003518 -0.003952 -0.002293 -0.000223 0.000430 -0.004136 0.000780 -0.001267 -0.000966 -0.002295 -0.002971 -0.004227 0.005256 -0.002768 -0.000427 0.003849 -0.005255 -0.002997 -0.004184 -0.000851 -0.002572 -0.002260 -0.004041 0.001100 0.002618 -0.004869 0.001758 0.000745 0.003828 -0.002394 -0.002957 0.002660 -0.003359 0.004678 -0.000635 0.002421 0.000351 -0.000748 -0.001783 -0.000360 0.004572 -0.003788 -0.004371 -0.005107 0.003315 0.003083 -0.003332 0.002776 0.001743 0.000539 -0.002818 -0.000058 -0.001111 0.000855 -0.002539 0.004396 -0.004691 -0.000824 -0.000140 -0.001476 0.003661 0.004238 -0.001728 0.005038 0.000710 0.004021 -0.000614 0.001079 0.003753 0.002418 0.003765 -0.004617 0.003879 -0.004593 0.003168 -0.000272 0.005026 -0.000140 0.001804 -0.001599 0.002015 0.005047 -0.003660 -0.003655 0.004364 0.004533 -0.002975 0.003607 0.001454 0.003650 -0.004067 0.000723 -0.003310 
#wll2021>a 0.000039 -0.003112 0.002941 -0.003000 0.003572 -0.002360 -0.004526 -0.000045 -0.003165 -0.002563 -0.002278 -0.003627 -0.004911 -0.001856 0.000814 -0.000305 -0.003781 0.004639 -0.000973 -0.004624 -0.000142 0.003610 -0.001494 0.001799 -0.000806 0.004717 -0.001748 0.000012 -0.000895 0.000097 -0.000425 0.003140 -0.002786 0.004200 -0.003562 -0.003213 0.003953 0.003995 -0.004699 -0.000548 0.001676 -0.000875 -0.004863 0.001928 -0.004317 0.001561 -0.002789 -0.002665 0.003615 -0.004216 -0.004645 0.001587 -0.004456 -0.000993 -0.003828 0.002879 0.004293 0.000487 -0.001425 0.002058 0.004966 0.002571 0.003668 0.002441 -0.004943 -0.000389 -0.004232 -0.000325 0.005054 -0.001503 0.000876 0.002200 -0.002887 -0.001082 -0.001695 0.000592 -0.003272 0.003054 -0.000955 -0.001754 0.001751 -0.004719 -0.002662 0.001130 0.002027 0.002608 -0.000363 -0.002917 0.000083 0.004439 0.004409 -0.002607 0.001369 0.003107 0.003469 0.005003 0.003442 0.002967 0.000512 -0.004348 
relative; -0.003612 0.001016 0.002204 -0.002200 0.003173 -0.003021 -0.002925 0.002284 -0.001487 0.002811 -0.003105 0.002335 0.000252 0.002723 -0.004964 0.003769 -0.001081 0.004252 -0.001392 0.004561 -0.003647 -0.003464 -0.003872 -0.004404 -0.001428 0.001736 -0.001034 0.000540 0.002517 0.004561 0.001089 0.004854 -0.001351 0.001834 -0.001139 -0.003162 -0.000176 0.003067 0.001379 -0.002869 0.000932 0.000484 -0.000073 -0.000494 -0.000250 -0.001576 -0.001579 -0.000725 -0.003587 0.003912 0.003105 0.004872 0.003431 -0.003172 0.003131 -0.002919 -0.003856 -0.001406 -0.000086 -0.000807 0.002183 0.004228 -0.002914 -0.002932 0.001601 0.000825 0.001496 -0.001201 -0.002597 -0.002524 0.001386 -0.004556 0.003995 -0.003687 -0.001187 -0.000164 -0.000387 0.002159 -0.002891 -0.001990 0.004566 0.001987 0.003214 -0.001408 0.001275 -0.004848 -0.003900 0.001671 0.004530 0.003536 -0.003447 0.001340 0.002383 0.002084 -0.001128 0.002592 -0.005039 -0.002310 -0.000723 0.003927 
0; -0.005009 -0.000331 -0.002897 -0.003591 -0.002359 0.000334 0.003217 0.003183 0.000273 0.004177 0.001907 0.000078 0.003230 -0.002087 -0.000777 -0.004695 -0.000652 0.001513 0.004517 -0.000477 0.003372 -0.003328 -0.001114 -0.003933 0.003429 -0.001992 -0.003731 0.000944 -0.000754 0.002713 0.003078 0.002264 0.003592 0.000261 -0.001729 0.000732 0.001848 0.002496 0.003305 -0.000265 0.001501 0.004127 0.001952 -0.004905 0.002750 0.002062 0.000794 -0.004999 -0.001742 -0.004045 -0.001488 0.000296 0.003006 -0.002072 -0.003370 0.004182 0.004893 0.002184 -0.000781 0.002506 0.003982 -0.004044 0.002363 0.003612 0.002815 -0.001079 -0.004727 -0.001889 -0.003069 0.002829 -0.000998 -0.000468 0.003378 0.002223 -0.002242 0.003341 0.002685 0.004362 -0.002220 -0.002054 -0.002310 -0.001279 -0.001888 0.004300 0.003339 -0.002745 0.000280 -0.004572 -0.002945 0.004370 -0.002191 -0.002557 -0.000744 -0.002667 -0.002697 -0.001782 0.002611 -0.004389 -0.002395 -0.001330 
width: 0.002251 0.001106 0.000392 0.002214 -0.004191 -0.001473 -0.000797 0.004547 0.003460 0.004786 0.000682 0.004050 -0.002264 -0.000526 0.003508 0.001418 0.004035 0.004620 -0.000630 -0.000170 -0.000249 0.004703 0.002027 -0.004841 -0.004684 -0.003245 -0.002104 -0.004214 0.003094 0.000408 -0.004188 0.002374 -0.001603 -0.002407 -0.002686 -0.001834 -0.001098 0.002884 -0.003818 -0.000973 0.004720 0.003366 -0.000994 0.003228 -0.001457 -0.001590 0.004509 0.001567 -0.004501 0.000150 0.004114 -0.002732 0.003189 0.003199 0.001828 -0.003830 0.001837 0.004340 0.004046 -0.003500 0.004175 0.003429 -0.000446 -0.000874 -0.004777 0.002330 -0.000071 -0.002801 0.002711 -0.004547 -0.001159 -0.003336 -0.003382 -0.000042 0.003048 -0.004402 -0.000128 -0.004536 0.001008 0.004884 -0.002446 0.003901 0.004465 -0.002057 -0.002717 -0.000219 -0.002625 0.000299 -0.000875 0.000113 -0.004190 0.000488 -0.004189 0.004541 -0.001065 -0.000927 0.002561 -0.004977 -0.001932 -0.000623 
auto; -0.003306 -0.003911 -0.002881 -0.002870 -0.000565 0.005017 0.002489 0.001126 0.001721 0.000930 0.003595 0.001673 -0.000130 -0.004509 0.000449 0.002051 0.002233 0.004815 -0.001462 -0.002108 -0.003268 0.004096 0.003701 -0.002949 -0.001446 0.003561 0.003983 0.002144 0.000805 -0.004258 0.002052 0.004825 0.001766 0.005239 0.000810 0.001231 0.002400 -0.002124 -0.002070 -0.000810 0.004566 0.003950 0.001182 0.001080 0.003780 -0.004387 0.002371 -0.001647 -0.002724 -0.002926 -0.005221 -0.001997 -0.004515 -0.003838 -0.003929 -0.002804 0.001322 0.001184 0.004538 -0.001886 -0.000839 0.004845 0.001296 0.003306 -0.002738 0.001926 0.001037 -0.002019 -0.003142 -0.000883 -0.001083 0.001563 -0.001911 -0.004506 0.004435 0.003867 -0.002684 0.003807 -0.000948 -0.001555 0.003227 -0.001492 -0.002814 0.001692 0.005036 -0.003546 0.005101 0.000763 0.004919 -0.003167 0.000893 -0.002099 -0.001738 0.001955 -0.003288 0.005080 0.003508 -0.003066 -0.004664 -0.002162 
solid 0.000398 -0.002108 -0.004874 -0.003918 0.001855 0.005089 0.003474 -0.000399 0.001890 0.000104 0.002552 0.001847 -0.000613 -0.002757 -0.004589 -0.001584 0.004521 0.004430 -0.000631 -0.002481 -0.001364 0.000315 0.002982 -0.000415 -0.001400 -0.002891 -0.002824 -0.000612 0.000701 -0.000160 -0.003337 0.001372 -0.004527 -0.004568 -0.002829 0.004204 -0.003875 0.002758 -0.001604 -0.001745 -0.002678 0.004161 0.000894 -0.002048 -0.003121 0.004517 -0.000866 -0.002273 0.004705 0.000542 -0.000974 -0.003176 0.003676 0.002150 0.000075 -0.004786 -0.000997 0.000747 0.003469 -0.002928 -0.001990 0.001148 0.002970 -0.002267 0.001139 0.000695 -0.004716 -0.004771 0.001705 -0.001303 -0.001213 0.000733 0.003355 -0.003273 -0.005056 -0.002669 0.004397 -0.000060 -0.001942 0.000709 -0.004283 -0.004675 0.004530 -0.000499 -0.000565 0.002167 0.003433 0.004070 0.000187 0.002293 -0.004569 -0.001643 -0.003973 0.000548 -0.004818 -0.002643 -0.002555 0.004222 -0.001839 -0.000786 
links -0.003403 0.002367 0.004691 -0.004325 -0.000354 -0.002612 0.004844 -0.000527 0.002857 0.003693 0.003539 -0.003134 -0.003160 -0.002420 -0.004265 -0.004435 -0.004572 0.000171 0.002246 -0.003901 0.001531 0.001879 0.003396 0.001830 0.005307 -0.002105 0.002892 -0.000296 0.004689 -0.004264 -0.002527 -0.003109 0.003169 0.004553 -0.003999 0.004242 -0.003518 -0.003975 0.000274 -0.004979 0.001832 0.005119 0.003660 -0.004251 -0.000376 -0.001607 0.002933 0.003957 0.002056 -0.004208 -0.003613 0.000627 0.004219 -0.000029 -0.003973 -0.001062 0.004232 0.003770 -0.003950 -0.004865 0.002183 -0.004452 0.001900 -0.002696 0.000340 0.004920 0.003769 -0.004493 0.004967 0.003125 0.001250 0.004391 0.001652 0.004597 -0.000174 -0.001825 0.002007 -0.002682 -0.005300 -0.004161 -0.000788 0.000514 -0.003918 -0.000993 -0.002274 -0.004137 -0.004732 -0.000601 0.004336 -0.002363 0.004953 0.004646 -0.000024 0.003512 0.002333 0.001116 -0.002307 0.003042 -0.004231 0.000182 
padding: 0.002465 -0.002344 -0.002079 -0.004179 0.001954 0.002521 0.001467 0.003392 -0.004302 0.004473 0.003372 0.001282 -0.003095 0.002529 0.002036 0.000191 0.001011 -0.000407 -0.000355 0.003123 0.004666 -0.000509 -0.000456 -0.004023 -0.000827 -0.000488 -0.001799 -0.002489 -0.003696 -0.000683 0.004618 -0.001987 0.001514 0.000892 0.000075 0.000927 0.002755 -0.001502 -0.001160 0.001809 -0.000147 -0.000589 -0.003138 -0.000469 -0.004294 0.003093 0.003417 0.004224 -0.004808 0.001544 -0.000407 -0.000494 -0.004031 -0.000383 -0.000550 0.001016 -0.001533 0.003773 -0.000401 -0.002787 -0.004849 0.003834 -0.001447 -0.001144 0.001172 0.002117 -0.001760 -0.001033 0.004561 0.002737 0.001781 0.003745 0.004699 0.002586 -0.003825 0.000921 0.004659 0.001704 0.000030 0.001540 0.000059 0.002009 -0.004867 -0.000690 -0.001882 -0.002170 -0.004588 -0.000775 -0.001444 -0.003985 -0.003251 0.000474 0.004532 -0.003464 -0.001654 0.002962 0.001231 0.001354 0.001399 0.000196 
background-position: -0.003841 0.004551 0.000590 -0.001841 -0.000153 0.003950 0.001269 -0.004831 0.004520 -0.001312 0.003109 0.002113 -0.004719 0.000186 -0.003352 0.002364 0.000577 0.004123 -0.003114 0.000817 -0.001112 -0.003453 -0.000386 -0.003752 0.004829 -0.002617 0.003903 -0.000089 0.002179 -0.001136 0.000788 0.004768 -0.000960 -0.004881 0.004507 -0.003778 -0.004039 0.003282 0.001455 0.002899 -0.004963 0.003416 0.000888 -0.004196 0.001631 -0.003183 0.003711 -0.002166 0.003449 -0.001831 0.003707 -0.005122 0.000278 0.005152 -0.002226 -0.004642 -0.004624 -0.003919 0.004833 -0.000014 0.003797 0.004371 -0.004635 0.002139 0.002695 0.003886 0.004671 -0.002858 0.002943 0.001149 -0.002349 0.004132 -0.004003 -0.003901 0.004896 0.002664 -0.001930 0.001477 -0.004096 -0.003181 -0.002696 0.001007 -0.003821 0.002915 0.002828 0.001901 0.002113 -0.002330 -0.003085 0.003239 0.001097 0.003699 -0.004251 -0.001982 -0.004140 0.002902 -0.003449 0.000217 -0.000221 0.001309 
100%; -0.000536 -0.003421 -0.000103 -0.002502 -0.002293 -0.002568 0.004161 0.002325 -0.004390 0.004454 0.004866 -0.000828 0.001147 0.001444 0.004673 0.003786 0.005189 -0.003403 0.001567 0.003581 -0.001410 -0.001371 0.003603 -0.000266 -0.001329 -0.000309 0.002187 -0.003581 0.001356 0.004917 0.001093 -0.001281 -0.002590 0.000650 -0.003002 0.004761 -0.000018 -0.003433 -0.001105 -0.004683 0.003712 -0.004878 -0.001764 0.004438 -0.003597 0.000272 -0.001240 -0.002973 -0.001806 -0.000762 -0.003486 0.001760 0.001428 0.002155 0.001015 -0.000669 0.001710 -0.000354 0.003740 0.003110 -0.003288 -0.002352 -0.002358 -0.000997 -0.003866 0.003003 0.000504 0.004834 0.003543 0.004334 -0.000480 0.002043 0.002372 0.003925 -0.002093 0.002964 0.001658 -0.002865 -0.002141 0.003906 0.002000 0.000627 -0.002909 0.003803 0.005287 0.003637 0.004927 0.002109 -0.004181 -0.002254 0.000778 0.003730 0.002412 -0.001346 0.000086 0.002781 -0.004989 0.002818 -0.001426 -0.001933 
and -0.003405 -0.000468 -0.004089 0.001014 0.001694 0.001180 0.002791 0.004425 -0.001792 0.002175 0.003354 0.004135 -0.003705 -0.000454 0.004004 -0.001575 -0.001390 0.002825 0.003648 -0.001923 0.000309 0.004044 0.003692 -0.003629 -0.000950 -0.002266 -0.001956 -0.000911 0.004988 0.000925 0.003108 0.004512 0.000780 0.003150 -0.002209 0.003421 0.001581 -0.003561 0.003499 -0.000902 -0.004951 -0.004676 0.004140 -0.002676 0.001339 -0.003164 -0.003882 -0.003620 0.003107 0.000506 -0.001660 -0.002953 -0.004490 -0.001635 0.002213 0.002606 -0.003796 0.004946 0.001642 -0.001160 -0.004655 -0.002722 0.003034 0.004028 -0.004410 0.004893 -0.004704 -0.001047 0.002094 -0.000177 -0.000168 -0.003104 0.002515 -0.003402 0.000551 0.003637 -0.002993 0.002251 0.003857 -0.002541 -0.001771 -0.003689 -0.001342 -0.000859 0.001335 0.000812 -0.003642 0.001967 0.003982 0.000282 0.000866 0.001716 -0.003674 0.001755 -0.001414 -0.003330 0.001024 0.004761 -0.001574 -0.002389 
Wikipedia 0.003097 0.001283 0.001823 -0.002222 0.000646 -0.003966 0.002552 0.003050 0.003219 -0.004075 -0.002666 0.001741 0.003887 0.000232 0.004559 0.004530 -0.002135 0.001495 -0.003803 0.004582 0.002313 0.003787 -0.004150 -0.002368 -0.001932 0.004282 -0.000183 0.002453 -0.002876 0.002731 -0.002783 -0.000555 0.004902 0.001061 -0.000665 0.001847 -0.000712 0.003586 0.000276 -0.004422 0.000169 -0.002532 -0.003818 -0.001015 0.000400 0.002278 -0.003793 0.002650 0.004953 0.000054 0.001466 0.000072 0.001415 -0.004537 -0.003893 -0.003225 0.000212 -0.004880 -0.003385 0.001283 0.003800 -0.001157 0.001559 0.004341 -0.002690 -0.001191 0.002732 -0.000982 -0.001135 -0.000673 0.003549 0.001401 -0.002183 -0.002760 0.000789 -0.000474 -0.002805 0.002489 0.003270 0.004168 0.002582 -0.003030 0.002412 -0.001166 0.001271 -0.004789 0.002407 -0.000930 0.003083 0.003978 -0.000984 0.003515 0.001014 0.003106 0.001595 0.002443 0.000340 0.004672 0.001291 -0.000694 
block; -0.001666 0.002949 0.002314 -0.000070 -0.003782 -0.004493 0.000913 0.003154 0.004756 0.001050 -0.003425 -0.000881 0.000442 0.001622 -0.000927 0.001130 0.001778 0.003357 0.004086 0.004851 -0.003773 0.001039 -0.002440 -0.002023 -0.000548 -0.004774 -0.002830 0.003597 0.004264 -0.001561 -0.003982 0.002983 -0.001023 0.005255 -0.003323 0.002197 0.004785 0.001473 -0.002974 -0.000751 0.003222 -0.002793 0.004777 -0.003408 0.000066 0.004938 0.001676 -0.004568 0.002358 -0.001380 0.000923 0.003021 0.000636 -0.003734 0.000460 -0.003737 -0.002197 -0.004008 -0.001577 -0.002325 -0.001809 0.000738 -0.004141 -0.000427 0.000080 0.005016 -0.002407 -0.002944 0.004922 -0.004253 -0.001315 -0.000230 0.002438 0.001855 -0.001389 -0.002468 -0.000846 -0.003750 -0.001080 0.003720 0.003941 0.003200 0.004013 0.004869 -0.004109 -0.000284 0.000203 -0.001923 -0.002906 0.004855 -0.004666 -0.004393 0.002890 0.000915 0.001901 -0.000511 0.002012 0.003163 0.002416 -0.005023 
disambiguation 0.003799 -0.002302 -0.004560 0.002281 0.002033 0.004796 -0.001889 0.001382 -0.000658 -0.004100 0.003138 0.005535 -0.004661 -0.005146 0.002724 -0.000109 0.001192 0.001180 0.005068 0.003157 -0.003751 0.001469 -0.001639 -0.004927 -0.000680 -0.000942 0.002903 0.002062 0.004974 -0.000999 0.004583 -0.003109 0.004547 -0.001298 -0.001973 -0.001220 0.001723 -0.004267 0.004106 -0.002170 0.000432 0.002944 0.002031 -0.000537 -0.000956 -0.004485 -0.002717 -0.002940 -0.002962 -0.000207 -0.004778 0.000365 -0.002883 -0.003528 -0.004454 -0.001141 0.005197 -0.003858 -0.000279 -0.002511 -0.002218 0.003586 0.001341 0.001329 -0.004233 -0.003191 -0.002799 -0.002431 0.003342 0.004767 0.005145 -0.001013 0.002355 -0.001458 -0.003477 -0.002954 0.001769 0.004174 -0.003641 -0.001835 0.003473 -0.001990 0.001336 0.001350 -0.001237 -0.000274 -0.000253 -0.004064 0.002065 0.000966 0.002644 -0.002642 0.001205 -0.003913 0.004378 -0.000731 -0.002221 0.003560 0.000084 -0.000201 
