28 100
</s> 0.004003 0.004419 -0.003830 -0.003278 0.001367 0.003021 0.000941 0.000211 -0.003604 0.002218 -0.004356 0.001250 -0.000751 -0.000957 -0.003316 -0.001882 0.002579 0.003025 0.002969 0.001597 0.001545 -0.003803 -0.004096 0.004970 0.003801 0.003090 -0.000604 0.004016 -0.000495 0.000735 -0.000149 -0.002983 0.001312 -0.001337 -0.003825 0.004754 0.004379 -0.001095 -0.000226 0.000509 -0.003638 -0.004007 0.004555 0.000063 -0.002582 -0.003042 -0.003076 0.001697 0.000201 0.001331 -0.004214 -0.003808 -0.000130 0.001144 0.002550 -0.003170 0.004080 0.000927 0.001120 -0.000608 0.002986 -0.002288 -0.002097 0.002158 -0.000753 0.001031 0.001805 -0.004089 -0.001983 0.002914 0.004232 0.003932 -0.003047 -0.002108 -0.000909 0.002001 -0.003788 0.002998 0.002788 -0.001599 -0.001552 -0.002238 0.004229 0.003912 -0.001180 0.004215 0.004820 0.001815 0.004983 -0.003111 -0.001532 -0.002107 -0.002907 0.002815 0.001579 0.000425 -0.002194 0.001524 0.003059 0.000194 
{ 0.001428 -0.005204 0.004484 0.000318 -0.001636 -0.001988 -0.000583 -0.003014 -0.004603 -0.002074 0.004657 -0.001476 -0.002937 0.002074 -0.002054 0.005453 -0.001095 -0.004274 0.003295 0.000418 -0.004052 0.001230 0.001851 -0.000909 0.002106 -0.004417 0.001232 0.002038 -0.002600 -0.000130 0.000013 -0.002316 -0.003220 -0.004046 -0.000153 0.000412 -0.000212 -0.003846 -0.004760 -0.005039 -0.004351 -0.000438 0.001325 0.001198 -0.002969 0.004874 -0.001810 -0.001370 -0.001106 0.004627 -0.003779 0.001115 -0.001366 0.003572 -0.000444 0.003905 -0.002801 -0.002167 -0.004064 -0.004107 -0.003175 -0.003254 0.002578 -0.001901 0.002467 0.004256 0.001813 0.002844 0.003222 0.002920 -0.003385 -0.003199 -0.003364 -0.000260 0.003810 -0.002510 -0.003516 -0.004514 0.002775 -0.004444 -0.000244 0.002704 -0.005256 -0.004453 0.002313 0.004082 0.004486 0.002053 0.003366 -0.003267 -0.003691 0.004590 -0.002847 0.001975 0.000683 0.002308 -0.001587 0.000416 -0.002029 -0.001211 
} -0.004777 -0.003402 0.003538 0.000907 -0.002277 -0.001563 0.002551 -0.003483 -0.002405 0.005091 0.004374 -0.003844 0.000774 -0.002361 0.000038 0.003249 0.005036 0.002199 0.004353 0.003348 -0.000424 0.004625 0.002700 0.004584 -0.001588 0.004622 0.004433 -0.001307 -0.004265 0.004691 0.000952 -0.002036 -0.000830 -0.000346 -0.003964 -0.001321 -0.000444 -0.004885 -0.003452 -0.001301 -0.000901 0.001846 0.000784 -0.000630 0.003035 0.001414 0.000645 0.003593 -0.000994 -0.001475 -0.000457 -0.002720 -0.003056 0.000298 0.004105 -0.001510 0.000042 -0.003895 0.003734 -0.001721 0.002958 -0.002432 -0.000838 0.000109 0.003478 0.000131 0.004604 -0.000845 0.002408 0.000093 -0.003807 0.004373 0.001231 -0.003054 0.002829 -0.004046 -0.004561 0.003195 -0.003642 -0.002721 0.003724 0.003463 0.000436 0.004541 0.005182 0.004206 0.001825 -0.004418 0.002431 -0.004943 -0.001264 0.001704 0.000996 -0.001425 0.002987 -0.004372 -0.001494 -0.001190 -0.001814 0.003022 
to -0.005939 0.002382 0.001365 0.002490 0.004291 0.000810 0.000718 -0.004607 -0.001641 0.004504 -0.001076 0.004996 -0.002062 -0.004478 -0.003043 0.006109 0.004517 -0.003186 0.005662 -0.003215 -0.005719 0.002962 0.000305 -0.003335 0.000310 -0.003211 0.002781 0.004354 0.004811 -0.005009 -0.001666 0.000314 -0.001644 0.005240 0.001782 0.005100 -0.003131 0.001999 0.004880 -0.002640 0.003032 0.001481 -0.004637 0.004455 0.005274 -0.002979 0.000070 -0.001759 0.002853 -0.004299 0.003095 -0.000932 -0.001408 -0.001539 -0.005310 -0.003808 -0.000703 0.005345 -0.002585 -0.005386 0.000186 0.000400 0.003218 0.000179 0.002826 0.003752 -0.000435 -0.000930 0.002361 0.002444 0.004014 0.004652 -0.001765 -0.002647 -0.002304 -0.002243 0.000433 -0.003957 -0.003484 -0.005416 0.002838 0.005301 -0.003214 -0.004211 0.004612 0.002731 -0.002260 -0.000972 -0.000514 -0.000134 -0.001766 0.001171 -0.002992 0.003842 0.004330 0.004387 -0.002169 0.000723 -0.000047 -0.003046 
the -0.005920 -0.001536 -0.001832 0.002779 0.003120 0.002003 -0.002923 0.003550 -0.002028 0.004552 0.001876 0.005336 0.002099 0.000150 -0.002660 0.005951 -0.001486 0.003821 0.006036 0.005576 -0.001598 0.003859 0.005171 -0.002828 0.005065 -0.005552 0.000818 -0.000016 0.004994 -0.004886 -0.001280 -0.001571 0.000013 0.006068 -0.002055 -0.004443 -0.001666 0.004286 0.001470 0.002399 -0.003624 -0.001079 0.000356 -0.002236 0.003869 -0.005169 0.003494 -0.002577 0.003636 0.002878 -0.002161 0.003617 0.000220 0.005081 -0.004489 -0.001769 0.003181 0.005235 0.002388 -0.001722 0.000455 -0.000928 0.002288 0.002602 -0.004418 -0.000574 0.004812 0.000058 0.006171 0.005822 0.001312 -0.004187 0.005121 0.002052 -0.005344 0.003985 -0.005514 -0.002586 0.003605 0.003002 -0.000057 0.001854 -0.004066 -0.004656 0.003458 0.005165 0.004340 0.002600 0.001930 0.001751 0.000063 0.002335 -0.002586 0.001249 0.001302 0.000760 0.002046 0.001219 -0.004712 -0.001609 
1 0.001455 0.003373 -0.004092 0.000843 0.004322 0.004462 -0.004587 0.003045 -0.003197 -0.000820 0.001805 0.003147 -0.004750 -0.003185 0.001010 0.001194 0.005374 0.002946 -0.002308 0.000926 0.000260 -0.002045 0.004107 -0.003772 0.005771 0.000138 -0.004519 0.000787 -0.000059 0.000423 0.003507 0.000300 -0.000590 0.001365 -0.003224 -0.000117 0.003386 0.003971 0.002497 -0.005735 0.000158 -0.002656 0.003826 0.004475 0.003832 0.001482 0.001517 -0.001963 -0.002213 -0.002199 -0.004536 0.000455 0.000723 0.001738 0.001549 -0.004676 0.003683 -0.001091 -0.004481 0.003655 -0.003149 -0.000904 -0.004090 0.005132 -0.002590 -0.004594 0.004726 0.001413 0.004871 0.002257 0.004460 0.000640 0.004545 0.004467 0.001251 -0.000184 0.000627 0.004217 -0.003844 -0.000648 0.001689 0.002655 -0.000008 0.003992 0.002519 0.004190 -0.003146 -0.002184 0.002687 0.005052 0.001629 0.001456 -0.004980 -0.004561 0.004917 0.003264 -0.003388 -0.001315 -0.004701 -0.003888 
of 0.003545 -0.002989 0.000956 -0.001285 -0.001555 -0.000041 -0.004830 -0.002263 -0.000746 0.005336 -0.001380 0.004479 -0.005325 0.003614 0.000246 0.001170 0.003468 0.003985 -0.002465 0.003858 0.000566 -0.000807 0.003832 -0.000408 0.004913 -0.000384 -0.001385 0.003772 -0.002797 -0.001053 0.004474 0.004870 -0.004508 0.002549 0.003665 0.000882 0.002536 0.003013 0.005338 -0.001601 -0.000986 0.003204 -0.005032 0.001350 0.000855 0.004280 -0.003451 -0.000277 0.004799 0.001116 0.002235 0.001366 0.001234 0.001413 -0.000605 0.002848 0.004263 0.003522 -0.002131 -0.003369 -0.003394 -0.001238 -0.002277 -0.003942 -0.002485 0.004072 0.003294 -0.004987 -0.000834 0.005052 0.000343 0.004015 -0.000556 -0.000261 -0.003125 0.001964 -0.004701 0.002830 -0.003314 0.002345 -0.002536 -0.001582 0.003261 0.002818 0.003268 0.002390 0.003022 -0.000796 0.004532 0.003846 0.003528 0.005153 -0.002639 -0.003697 -0.002779 0.001200 0.000366 0.004305 -0.003864 0.002817 
a 0.003538 0.003445 0.000123 0.001132 -0.000453 0.005008 -0.004566 -0.004764 0.001678 -0.000232 0.004918 -0.000986 -0.000451 0.001894 0.000926 -0.002469 0.003971 0.000357 0.001507 -0.000832 0.004334 0.002750 0.004767 0.004097 -0.000548 0.001653 0.001481 -0.001943 0.004383 0.002164 -0.003018 0.004324 0.000127 0.001654 -0.003767 0.002280 0.000319 -0.002143 -0.000262 0.001674 -0.001248 0.003981 -0.002830 -0.002092 0.004065 0.004831 0.003846 0.004604 -0.004625 -0.003473 -0.004874 0.001028 -0.004117 -0.000095 0.000615 -0.002452 0.001291 -0.004194 0.001659 -0.001855 -0.001892 -0.001170 0.002169 -0.001587 -0.002538 -0.002984 -0.001388 -0.004184 0.002598 -0.000759 -0.000830 0.002317 -0.003514 -0.003304 -0.004794 0.000027 -0.002263 -0.004636 0.001497 -0.004953 -0.001946 0.001971 0.004561 -0.003301 -0.001286 0.005447 0.003113 0.004204 0.004252 -0.002529 -0.002131 0.002664 0.002806 0.003584 0.003563 -0.003948 -0.004783 0.000841 -0.004792 0.002739 
#wll2021 0.004242 -0.002001 0.003792 -0.004972 0.004184 -0.002384 -0.000734 -0.004842 0.003042 0.004079 -0.004078 -0.000914 0.000972 0.004419 0.000166 -0.004905 0.000631 -0.001833 0.000904 0.003966 -0.002825 -0.002645 -0.000458 -0.001022 -0.001741 -0.003487 -0.000013 -0.004085 0.004041 0.002673 -0.001355 0.003057 -0.002823 -0.004633 0.004422 0.001185 0.002822 -0.003375 -0.001276 0.003580 -0.001367 0.000978 -0.004542 -0.003975 0.004766 -0.004541 0.001030 -0.003201 0.003878 -0.000402 0.004346 -0.003315 0.001125 -0.004574 -0.003188 -0.001036 0.004163 -0.002525 0.002336 -0.000584 0.003148 0.002776 -0.002679 -0.003677 0.000736 0.000860 0.000677 0.000467 0.002084 0.003758 0.003807 -0.004872 0.004849 -0.003997 0.000619 -0.003912 -0.000815 0.004624 -0.002481 0.001629 -0.002250 -0.000847 0.003413 0.002530 -0.004300 0.001622 -0.000292 0.002074 0.000691 -0.003438 0.000309 -0.003958 0.002879 0.001003 0.001623 0.002715 0.004921 0.004478 0.002556 0.002874 
display: 0.001833 -0.001081 0.004514 -0.000231 0.001701 -0.000826 0.001422 -0.000661 0.004214 0.002039 -0.000299 -0.000356 0.002210 -0.003235 -0.001915 0.001619 0.000985 -0.003919 -0.001643 -0.001574 -0.002277 0.003876 0.003989 -0.004293 0.003266 -0.002695 0.001614 0.002293 -0.000163 -0.003851 0.000086 -0.001556 0.002454 0.002593 0.000771 -0.002384 -0.000800 0.000430 -0.002189 -0.004453 -0.000060 -0.002651 -0.002610 0.000649 -0.002596 0.002598 -0.001540 0.003527 -0.003231 -0.001635 0.002298 -0.002307 -0.004433 -0.000877 0.003010 -0.001404 0.004284 0.001896 -0.002845 0.004795 -0.004850 -0.003887 0.003212 -0.002905 0.003498 0.004001 0.002862 -0.001530 -0.002611 -0.000082 -0.000121 -0.004957 -0.003734 0.000848 0.000661 0.004923 0.002996 -0.003449 0.004289 -0.001184 0.003294 -0.000995 0.002058 0.000201 0.004168 0.002642 -0.001930 0.004639 -0.004115 0.004435 -0.001701 0.000672 0.001238 0.004123 0.001970 -0.001056 -0.004622 0.003607 0.000306 0.002517 
position: -0.004464 -0.002828 -0.002414 -0.002551 0.003220 0.002624 -0.000196 0.002165 -0.000610 -0.000949 -0.003874 -0.002687 0.000041 -0.002520 -0.002617 -0.003938 0.003371 0.004400 -0.001244 0.004090 -0.002246 -0.004694 -0.004718 -0.000716 -0.001943 0.000001 -0.003484 0.003935 -0.002008 0.001132 0.003724 -0.000178 -0.004889 0.003445 0.000700 0.003468 0.000618 0.002339 0.004505 0.002486 -0.003484 -0.001086 0.003079 -0.001386 -0.001956 0.004459 -0.001359 0.004488 0.002867 0.003765 0.004521 -0.004000 0.000834 0.004157 -0.002812 0.001371 -0.004704 0.004698 -0.003641 0.001528 0.000761 -0.002874 0.002508 0.000005 -0.004921 -0.002909 -0.000075 0.001958 -0.000768 0.000583 0.004730 -0.003583 0.004285 -0.002977 -0.004295 0.003375 -0.003982 -0.000679 -0.005178 -0.003811 0.003224 0.001956 -0.004055 0.001528 0.004881 0.001263 -0.004363 -0.003438 0.003314 -0.003263 0.002012 0.003265 0.004460 0.001284 -0.003047 0.003777 -0.004368 -0.001147 0.004072 0.004015 
0, -0.002382 -0.003721 0.000444 0.002932 0.002355 0.003543 0.004385 0.000943 -0.004774 0.002496 -0.002523 0.001347 0.003889 -0.002330 0.003625 -0.000076 -0.001501 -0.003904 -0.000764 0.004956 0.001713 -0.002695 0.003216 -0.002775 -0.001314 0.003329 -0.003029 0.000011 -0.002925 -0.001302 0.004408 -0.000904 -0.002963 0.000444 0.001933 0.002761 0.001227 -0.001901 -0.001548 0.001788 0.004802 0.003692 -0.004628 -0.000543 -0.004583 0.001757 -0.003402 0.001550 0.003231 -0.000676 -0.001463 -0.003652 0.000897 -0.004077 0.000096 0.004632 0.003574 0.003587 0.002679 -0.000316 -0.001084 -0.003153 0.000194 -0.002715 -0.002919 0.002734 -0.000952 -0.004285 0.000724 0.000779 -0.001855 -0.004242 -0.004998 0.003014 -0.001107 0.000692 -0.002429 0.003969 -0.004803 -0.003699 -0.001413 0.000676 0.003464 0.000864 0.000707 0.002666 0.002600 -0.004836 -0.000914 0.001971 0.004012 0.002482 0.001382 0.003122 0.001606 -0.001402 -0.002250 0.003149 0.001787 0.001795 
.wll2021 0.000784 0.001586 0.003456 0.002838 -0.004146 0.000492 -0.001948 -0.004945 0.000354 0.004357 -0.000532 0.004233 0.004544 0.000123 0.003980 -0.001440 0.001166 -0.002429 0.000775 -0.001147 -0.004817 -0.001488 0.001034 -0.001646 0.004527 -0.002542 -0.001325 0.003052 -0.000883 0.001635 0.000137 0.001004 0.001581 0.000573 0.004382 0.003097 -0.002765 -0.003946 0.002843 0.002501 0.003746 0.002794 -0.000726 -0.004836 0.001207 -0.002283 0.000221 -0.000749 0.002247 0.000507 0.004457 -0.004391 0.002011 0.003153 0.003484 -0.002603 -0.001777 0.000088 0.001316 0.000557 0.000965 -0.001661 0.004163 0.003336 0.002925 -0.002387 0.001023 -0.003612 -0.000568 -0.000204 0.003233 0.003166 -0.002189 -0.000641 0.004703 -0.000668 -0.001621 0.003452 0.001958 0.003157 0.003886 0.001667 0.003817 -0.004504 -0.000569 -0.004086 0.001798 -0.000358 0.002559 0.000708 -0.000400 0.001349 0.003470 0.003168 0.003766 -0.001177 0.004929 0.002788 0.003105 0.002863 
0 0.001462 0.001335 -0.000740 -0.003232 0.002668 0.004250 -0.004142 -0.003463 -0.003953 -0.002073 -0.000273 0.000578 -0.004081 0.000664 -0.001386 -0.000863 -0.002203 -0.002934 -0.003933 0.005358 -0.002977 -0.000269 0.003890 -0.005363 -0.003055 -0.004355 -0.000775 -0.002419 -0.002042 -0.004257 0.001080 0.002587 -0.004904 0.002079 0.000719 0.003935 -0.002413 -0.002963 0.002795 -0.003343 0.004755 -0.000568 0.002385 0.000351 -0.000666 -0.001875 -0.000361 0.004557 -0.003736 -0.004342 -0.005061 0.003378 0.003036 -0.003391 0.002579 0.001721 0.000610 -0.002533 -0.000068 -0.001332 0.000783 -0.002563 0.004579 -0.004795 -0.000922 -0.000024 -0.001535 0.003577 0.004271 -0.001613 0.005145 0.000610 0.004142 -0.000682 0.000801 0.003789 0.002342 0.003584 -0.004652 0.003838 -0.004463 0.003268 -0.000314 0.004894 -0.000021 0.001853 -0.001592 0.002053 0.005128 -0.003738 -0.003704 0.004349 0.004593 -0.002828 0.003634 0.001487 0.003654 -0.004006 0.000694 -0.003305 
#wll2021>a -0.000041 -0.003108 0.002902 -0.002963 0.003659 -0.002277 -0.004593 -0.000032 -0.003217 -0.002484 -0.002243 -0.003477 -0.004977 -0.001943 0.000765 -0.000207 -0.003727 0.004676 -0.000848 -0.004538 -0.000264 0.003674 -0.001397 0.001652 -0.000710 0.004585 -0.001740 0.000090 -0.000782 -0.000033 -0.000395 0.003132 -0.002792 0.004348 -0.003598 -0.003179 0.003945 0.004022 -0.004591 -0.000630 0.001713 -0.000851 -0.004827 0.001937 -0.004221 0.001482 -0.002765 -0.002721 0.003638 -0.004259 -0.004716 0.001637 -0.004450 -0.000995 -0.003923 0.002804 0.004388 0.000555 -0.001474 0.001972 0.004930 0.002548 0.003731 0.002472 -0.004996 -0.000376 -0.004179 -0.000360 0.005200 -0.001388 0.001001 0.002199 -0.002779 -0.001058 -0.001772 0.000608 -0.003306 0.003065 -0.001027 -0.001762 0.001803 -0.004631 -0.002705 0.001113 0.002111 0.002689 -0.000364 -0.002936 0.000177 0.004489 0.004400 -0.002557 0.001322 0.003100 0.003588 0.005070 0.003445 0.003003 0.000429 -0.004426 
relative; -0.003657 0.001002 0.002157 -0.002163 0.003228 -0.003031 -0.002918 0.002353 -0.001463 0.002863 -0.003231 0.002361 0.000339 0.002652 -0.004976 0.003705 -0.001066 0.004249 -0.001314 0.004520 -0.003674 -0.003418 -0.003934 -0.004391 -0.001511 0.001741 -0.001072 0.000610 0.002587 0.004487 0.001060 0.004822 -0.001323 0.002001 -0.001149 -0.003087 -0.000152 0.003093 0.001455 -0.002816 0.001017 0.000483 -0.000106 -0.000474 -0.000223 -0.001597 -0.001604 -0.000698 -0.003564 0.003908 0.003165 0.004893 0.003416 -0.003265 0.003066 -0.002913 -0.003818 -0.001241 -0.000139 -0.000847 0.002165 0.004222 -0.002815 -0.002957 0.001551 0.000789 0.001389 -0.001234 -0.002676 -0.002548 0.001477 -0.004605 0.004055 -0.003697 -0.001344 -0.000170 -0.000359 0.002103 -0.002874 -0.001984 0.004638 0.001977 0.003265 -0.001487 0.001244 -0.004916 -0.003991 0.001678 0.004540 0.003517 -0.003439 0.001238 0.002461 0.002171 -0.001107 0.002576 -0.004991 -0.002293 -0.000666 0.003934 
0; -0.005024 -0.000354 -0.002955 -0.003541 -0.002318 0.000366 0.003211 0.003239 0.000274 0.004198 0.001882 0.000147 0.003260 -0.002151 -0.000775 -0.004686 -0.000618 0.001512 0.004604 -0.000445 0.003325 -0.003285 -0.001122 -0.003976 0.003405 -0.002020 -0.003728 0.000998 -0.000684 0.002657 0.003093 0.002216 0.003637 0.000346 -0.001751 0.000761 0.001868 0.002487 0.003372 -0.000271 0.001533 0.004129 0.001964 -0.004890 0.002789 0.002020 0.000780 -0.005005 -0.001759 -0.004031 -0.001494 0.000319 0.002983 -0.002126 -0.003426 0.004162 0.004943 0.002246 -0.000814 0.002468 0.003933 -0.004044 0.002410 0.003616 0.002769 -0.001113 -0.004756 -0.001905 -0.003080 0.002866 -0.000924 -0.000521 0.003441 0.002223 -0.002334 0.003329 0.002698 0.004342 -0.002217 -0.002057 -0.002247 -0.001264 -0.001865 0.004262 0.003342 -0.002754 0.000251 -0.004577 -0.002916 0.004365 -0.002192 -0.002601 -0.000726 -0.002654 -0.002653 -0.001792 0.002607 -0.004370 -0.002396 -0.001335 
width: 0.002238 0.001113 0.000366 0.002232 -0.004154 -0.001495 -0.000790 0.004594 0.003462 0.004820 0.000613 0.004050 -0.002223 -0.000568 0.003516 0.001375 0.004049 0.004613 -0.000600 -0.000211 -0.000231 0.004730 0.001998 -0.004809 -0.004733 -0.003204 -0.002134 -0.004194 0.003119 0.000390 -0.004204 0.002345 -0.001578 -0.002317 -0.002716 -0.001785 -0.001074 0.002902 -0.003778 -0.000971 0.004782 0.003356 -0.001023 0.003269 -0.001433 -0.001594 0.004491 0.001592 -0.004498 0.000126 0.004133 -0.002710 0.003188 0.003131 0.001805 -0.003829 0.001881 0.004425 0.004000 -0.003504 0.004168 0.003417 -0.000413 -0.000880 -0.004804 0.002293 -0.000123 -0.002808 0.002667 -0.004566 -0.001104 -0.003338 -0.003342 -0.000023 0.002966 -0.004425 -0.000091 -0.004552 0.001003 0.004885 -0.002408 0.003892 0.004504 -0.002082 -0.002742 -0.000261 -0.002702 0.000292 -0.000872 0.000108 -0.004170 0.000428 -0.004157 0.004574 -0.001032 -0.000939 0.002575 -0.004976 -0.001914 -0.000631 
auto; -0.003220 -0.004043 -0.002825 -0.002739 -0.000783 0.004814 0.002611 0.001129 0.001904 0.000817 0.003352 0.001490 0.000204 -0.004398 0.000517 0.001838 0.001999 0.004652 -0.001399 -0.002268 -0.003208 0.004131 0.003373 -0.002682 -0.001800 0.003698 0.004050 0.002139 0.000745 -0.004214 0.001943 0.004751 0.001909 0.005120 0.000972 0.001125 0.002436 -0.002294 -0.002209 -0.000431 0.004590 0.003976 0.001091 0.000970 0.003637 -0.004431 0.002268 -0.001597 -0.002777 -0.002741 -0.004968 -0.002020 -0.004637 -0.004024 -0.003864 -0.002529 0.001164 0.001217 0.004669 -0.001899 -0.000791 0.004953 0.001396 0.003161 -0.002619 0.001905 0.000706 -0.002020 -0.003617 -0.001140 -0.001300 0.001352 -0.002126 -0.004654 0.004421 0.003796 -0.002642 0.003674 -0.000622 -0.001500 0.003230 -0.001676 -0.002635 0.001507 0.004749 -0.003843 0.005123 0.000821 0.004720 -0.003355 0.000844 -0.002459 -0.001505 0.002101 -0.003508 0.004798 0.003753 -0.003131 -0.004350 -0.001965 
solid 0.000361 -0.002174 -0.004875 -0.003906 0.001857 0.005090 0.003478 -0.000392 0.001924 0.000151 0.002521 0.001881 -0.000609 -0.002781 -0.004622 -0.001566 0.004544 0.004465 -0.000540 -0.002437 -0.001420 0.000377 0.002965 -0.000432 -0.001436 -0.002926 -0.002788 -0.000539 0.000762 -0.000231 -0.003335 0.001381 -0.004532 -0.004468 -0.002824 0.004226 -0.003853 0.002753 -0.001568 -0.001717 -0.002673 0.004200 0.000863 -0.002070 -0.003114 0.004523 -0.000889 -0.002272 0.004740 0.000559 -0.000946 -0.003161 0.003626 0.002106 -0.000008 -0.004768 -0.000974 0.000815 0.003463 -0.003015 -0.002022 0.001159 0.003023 -0.002320 0.001097 0.000751 -0.004759 -0.004832 0.001694 -0.001273 -0.001198 0.000706 0.003361 -0.003328 -0.005163 -0.002659 0.004351 -0.000116 -0.001950 0.000687 -0.004240 -0.004676 0.004542 -0.000525 -0.000541 0.002175 0.003451 0.004066 0.000213 0.002277 -0.004572 -0.001667 -0.003934 0.000593 -0.004833 -0.002645 -0.002549 0.004274 -0.001831 -0.000762 
links -0.003441 0.002281 0.004567 -0.004296 -0.000276 -0.002575 0.004856 -0.000369 0.002882 0.003720 0.003421 -0.003092 -0.003087 -0.002520 -0.004289 -0.004513 -0.004556 0.000193 0.002363 -0.003912 0.001478 0.001939 0.003328 0.001800 0.005184 -0.002122 0.002862 -0.000196 0.004808 -0.004406 -0.002512 -0.003155 0.003216 0.004780 -0.004025 0.004316 -0.003428 -0.003970 0.000354 -0.004916 0.001923 0.005112 0.003670 -0.004214 -0.000369 -0.001640 0.002907 0.003963 0.002018 -0.004175 -0.003616 0.000686 0.004152 -0.000170 -0.004102 -0.001024 0.004299 0.003987 -0.004012 -0.004938 0.002081 -0.004419 0.002012 -0.002745 0.000216 0.004896 0.003612 -0.004519 0.004866 0.003130 0.001354 0.004255 0.001762 0.004590 -0.000405 -0.001790 0.002045 -0.002769 -0.005271 -0.004165 -0.000690 0.000480 -0.003898 -0.001074 -0.002314 -0.004226 -0.004820 -0.000573 0.004365 -0.002417 0.004967 0.004485 0.000078 0.003590 0.002311 0.001125 -0.002254 0.003050 -0.004189 0.000173 
padding: 0.002467 -0.002391 -0.002108 -0.004153 0.001960 0.002519 0.001459 0.003441 -0.004263 0.004476 0.003271 0.001306 -0.003014 0.002508 0.002035 0.000133 0.000980 -0.000422 -0.000302 0.003117 0.004610 -0.000483 -0.000523 -0.004043 -0.000907 -0.000524 -0.001822 -0.002423 -0.003646 -0.000757 0.004603 -0.001993 0.001535 0.000997 0.000107 0.000964 0.002783 -0.001514 -0.001125 0.001888 -0.000089 -0.000588 -0.003153 -0.000496 -0.004322 0.003077 0.003384 0.004228 -0.004807 0.001583 -0.000360 -0.000474 -0.004059 -0.000456 -0.000596 0.001059 -0.001531 0.003875 -0.000417 -0.002823 -0.004884 0.003850 -0.001344 -0.001186 0.001129 0.002111 -0.001879 -0.001061 0.004476 0.002704 0.001830 0.003652 0.004715 0.002553 -0.003931 0.000950 0.004669 0.001650 0.000094 0.001574 0.000107 0.001979 -0.004822 -0.000766 -0.001930 -0.002245 -0.004609 -0.000741 -0.001442 -0.004007 -0.003271 0.000381 0.004632 -0.003387 -0.001675 0.002944 0.001308 0.001377 0.001478 0.000216 
background-position: -0.004482 0.004423 0.000541 -0.001876 0.000220 0.004105 0.001257 -0.004645 0.004396 -0.000735 0.003183 0.002538 -0.004900 -0.000122 -0.003741 0.002777 0.000837 0.004407 -0.002511 0.001222 -0.001566 -0.003148 -0.000113 -0.004244 0.005026 -0.003154 0.004011 0.000214 0.002745 -0.001674 0.000792 0.004728 -0.001134 -0.004051 0.004286 -0.003525 -0.004152 0.003489 0.001832 0.002673 -0.004893 0.003521 0.000908 -0.004201 0.001875 -0.003377 0.003875 -0.002193 0.003673 -0.001891 0.003655 -0.004957 0.000314 0.005251 -0.002812 -0.004914 -0.004405 -0.003272 0.004674 -0.000506 0.003726 0.004247 -0.004334 0.002056 0.002357 0.004209 0.004869 -0.003029 0.003529 0.001626 -0.001924 0.004066 -0.003526 -0.003892 0.004284 0.002826 -0.002163 0.001130 -0.004454 -0.003339 -0.002429 0.001419 -0.004222 0.002738 0.003295 0.002212 0.002013 -0.002344 -0.002780 0.003222 0.001046 0.004024 -0.004280 -0.001725 -0.003928 0.003286 -0.003647 0.000398 -0.000501 0.001152 
100%; -0.000869 -0.003483 -0.000202 -0.002463 -0.002084 -0.002523 0.004171 0.002512 -0.004385 0.004765 0.004706 -0.000639 0.001219 0.001251 0.004495 0.003866 0.005310 -0.003268 0.001879 0.003673 -0.001599 -0.001198 0.003637 -0.000413 -0.001358 -0.000481 0.002165 -0.003379 0.001656 0.004601 0.001055 -0.001313 -0.002620 0.001208 -0.003090 0.004926 0.000003 -0.003282 -0.000881 -0.004665 0.003850 -0.004859 -0.001798 0.004471 -0.003437 0.000159 -0.001185 -0.002971 -0.001682 -0.000786 -0.003412 0.001861 0.001407 0.002064 0.000722 -0.000772 0.001831 0.000124 0.003636 0.002899 -0.003357 -0.002377 -0.002167 -0.001043 -0.004048 0.003080 0.000451 0.004733 0.003626 0.004453 -0.000234 0.001951 0.002644 0.003930 -0.002519 0.003044 0.001606 -0.003063 -0.002235 0.003874 0.002197 0.000765 -0.002989 0.003661 0.005421 0.003659 0.004774 0.002123 -0.004084 -0.002266 0.000771 0.003672 0.002479 -0.001154 0.000158 0.002906 -0.004978 0.002878 -0.001469 -0.002000 
and -0.003405 -0.000468 -0.004089 0.001014 0.001694 0.001180 0.002791 0.004425 -0.001792 0.002175 0.003354 0.004135 -0.003705 -0.000454 0.004004 -0.001575 -0.001390 0.002825 0.003648 -0.001923 0.000309 0.004044 0.003692 -0.003629 -0.000950 -0.002266 -0.001956 -0.000911 0.004988 0.000925 0.003108 0.004512 0.000780 0.003150 -0.002209 0.003421 0.001581 -0.003561 0.003499 -0.000902 -0.004951 -0.004676 0.004140 -0.002676 0.001339 -0.003164 -0.003882 -0.003620 0.003107 0.000506 -0.001660 -0.002953 -0.004490 -0.001635 0.002213 0.002606 -0.003796 0.004946 0.001642 -0.001160 -0.004655 -0.002722 0.003034 0.004028 -0.004410 0.004893 -0.004704 -0.001047 0.002094 -0.000177 -0.000168 -0.003104 0.002515 -0.003402 0.000551 0.003637 -0.002993 0.002251 0.003857 -0.002541 -0.001771 -0.003689 -0.001342 -0.000859 0.001335 0.000812 -0.003642 0.001967 0.003982 0.000282 0.000866 0.001716 -0.003674 0.001755 -0.001414 -0.003330 0.001024 0.004761 -0.001574 -0.002389 
Wikipedia 0.003074 0.001250 0.001779 -0.002227 0.000708 -0.003898 0.002516 0.003087 0.003189 -0.004047 -0.002631 0.001821 0.003811 0.000166 0.004535 0.004579 -0.002080 0.001543 -0.003734 0.004672 0.002235 0.003830 -0.004097 -0.002475 -0.001902 0.004217 -0.000173 0.002503 -0.002807 0.002655 -0.002730 -0.000563 0.004895 0.001159 -0.000713 0.001873 -0.000682 0.003582 0.000336 -0.004498 0.000191 -0.002521 -0.003782 -0.001003 0.000422 0.002256 -0.003793 0.002633 0.004936 0.000033 0.001393 0.000107 0.001391 -0.004563 -0.003961 -0.003265 0.000286 -0.004858 -0.003423 0.001230 0.003741 -0.001157 0.001582 0.004338 -0.002761 -0.001177 0.002751 -0.001006 -0.001033 -0.000597 0.003637 0.001387 -0.002094 -0.002752 0.000716 -0.000458 -0.002814 0.002506 0.003192 0.004154 0.002636 -0.002990 0.002388 -0.001128 0.001325 -0.004736 0.002391 -0.000953 0.003151 0.003997 -0.000981 0.003538 0.001016 0.003078 0.001661 0.002495 0.000306 0.004708 0.001242 -0.000737 
block; -0.001558 0.002768 0.002420 0.000076 -0.004075 -0.004805 0.001094 0.003176 0.004964 0.000954 -0.003722 -0.001147 0.000842 0.001728 -0.000806 0.000820 0.001470 0.003126 0.004197 0.004641 -0.003692 0.001103 -0.002839 -0.001659 -0.000992 -0.004562 -0.002719 0.003584 0.004200 -0.001498 -0.004092 0.002844 -0.000802 0.005168 -0.003166 0.002106 0.004853 0.001182 -0.003132 -0.000343 0.003338 -0.002753 0.004675 -0.003527 -0.000126 0.004853 0.001522 -0.004478 0.002264 -0.001204 0.001193 0.003023 0.000497 -0.004026 0.000539 -0.003362 -0.002307 -0.003949 -0.001450 -0.002346 -0.001740 0.000830 -0.004013 -0.000630 0.000206 0.005003 -0.002816 -0.002947 0.004342 -0.004545 -0.001553 -0.000447 0.002201 0.001732 -0.001409 -0.002580 -0.000765 -0.003891 -0.000740 0.003788 0.003989 0.002969 0.004234 0.004691 -0.004474 -0.000702 0.000173 -0.001899 -0.003131 0.004589 -0.004654 -0.004839 0.003230 0.001085 0.001692 -0.000864 0.002317 0.003097 0.002797 -0.004781 
disambiguation 0.003827 -0.002486 -0.004435 0.002452 0.001722 0.004511 -0.001605 0.001325 -0.000519 -0.004238 0.002985 0.005146 -0.004199 -0.005023 0.002814 -0.000362 0.000926 0.000785 0.005255 0.002891 -0.003711 0.001509 -0.002041 -0.004511 -0.001255 -0.000758 0.003122 0.001921 0.004949 -0.000855 0.004405 -0.003303 0.004722 -0.001525 -0.001850 -0.001291 0.001703 -0.004703 0.003802 -0.001717 0.000510 0.002928 0.001969 -0.000624 -0.001192 -0.004590 -0.002783 -0.002833 -0.003226 -0.000010 -0.004551 0.000325 -0.003095 -0.003748 -0.004299 -0.000786 0.004899 -0.003889 -0.000021 -0.002515 -0.002164 0.003698 0.001480 0.001094 -0.004006 -0.003190 -0.003264 -0.002280 0.002795 0.004416 0.004792 -0.001280 0.002063 -0.001631 -0.003431 -0.003085 0.001915 0.003861 -0.003250 -0.001891 0.003522 -0.002105 0.001431 0.001096 -0.001578 -0.000591 -0.000239 -0.003946 0.001721 0.000492 0.002518 -0.003086 0.001592 -0.003679 0.004159 -0.001101 -0.002039 0.003384 0.000508 0.000043 
